aeroplane -0.015745 -0.47922 -0.67675 0.018841 0.28397 -0.12365 -0.3207 -0.13515 -0.37783 -0.1061 0.50165 0.052992 -0.25321 -0.12997 0.42831 0.47262 -0.12039 0.10969 -0.34844 0.41501 0.0068709 0.15563 0.44824 0.2762 -0.29779 -0.66761 0.017529 0.87628 0.22716 0.48532 0.46371 -0.17173 -0.35262 -0.41359 0.15944 0.070617 0.62961 0.18892 0.24346 -0.055066 -0.25162 0.015885 -0.085217 -0.42467 -0.18548 -0.3198 -0.35086 -0.067461 -0.18642 -0.86237 -0.21492 -0.44733 0.10189 0.30492 -0.61115 -0.011634 0.075261 0.21152 0.23068 0.18603 -0.098604 -0.022955 -0.58389 0.097999 0.29096 -0.027285 0.063403 0.30959 0.09049 0.098506 -0.1144 -0.10596 0.072057 0.25176 0.081299 -0.11633 0.21047 0.029075 0.03101 0.22624 -0.37368 0.24846 -0.019017 -0.027035 -0.14342 0.21012 -0.25183 0.24677 0.055669 -0.053591 0.029874 0.037641 -0.30011 -0.0073155 -1.0176 -0.32016 -0.90299 0.41233 0.36493 0.43737 0.40042 0.28902 0.52014 -0.050977 0.29554 -0.20032 0.50229 -0.33548 0.30305 -0.21084 -0.070914 -0.013074 -0.29002 0.062738 -0.26807 0.3742 0.16777 -0.010304 0.014195 0.44357 -0.15697 0.15657 -0.44122 -0.038026 -0.1047 0.092685 0.099682 0.16169 0.28589 -0.5442 -0.048148 0.081509 -0.036977 0.11177 -0.16391 0.11291 0.68418 -0.66853 0.31964 0.025869 0.16908 0.0091877 -0.0019394 0.13975 0.26919 -0.033385 -0.18222 0.14375 -0.028078 0.20807 -0.19907 -0.14939 0.95098 -0.079856 0.25454 -0.43781 -0.2836 -0.50187 0.16835 -0.075168 -0.087375 0.6788 -0.025954 0.59429 -0.13351 -0.064285 0.0064143 0.17509 0.23701 0.049751 -0.24038 -0.11822 -0.38509 0.0031062 -0.035164 0.16226 -0.55749 -0.12064 -0.054692 -0.33858 0.72339 -0.31038 0.63545 -0.034352 -0.095376 -0.12779 -0.52918 -0.036299 -0.12698 -0.42678 0.061711 0.29103 -0.6132 0.13318 -0.067443 0.03593 0.55215 0.13198 0.05871 -0.22549 -0.4923 0.35955 -0.61052 0.31072 0.30425 0.022923 -0.43351 0.17221 0.72854 0.25227 -0.17486 -0.14319 -0.50436 1.0681 0.60549 0.54713 -0.29601 0.029744 0.043432 -0.1261 0.088079 0.28462 0.23983 0.13357 -0.59286 -0.2128 -0.39013 0.4818 0.051857 -0.12301 -0.23513 0.75125 0.47841 -0.059543 0.44623 -0.25472 1.0007 -0.3467 0.1773 -0.0095452 0.026975 -0.61223 -0.0045517 -0.14071 -0.1737 0.24678 0.50454 -0.0090307 0.25248 0.41411 -0.022536 -0.22056 0.48885 -0.28281 0.034664 -0.34096 -0.040618 0.089548 0.15701 -0.076394 0.42862 0.12239 0.093202 -0.029496 0.95568 -0.066466 0.068602 0.079747 -0.62624 -0.28958 -0.49733 -0.11874 -0.33528 -0.45947 0.10819 -0.2803 0.00068563 -0.22151 -0.41451 0.4944 0.50983 -0.19736 -0.038959 0.67812 -0.18102 -0.57363 0.15728 -0.62461 -0.28407 -0.55588 -0.2036 -0.36369 -0.56451 -0.003052 0.058166 -0.20239 0.1069 0.35855 -0.29835 0.012486
bicycle 0.049382 -0.16127 0.27944 -0.18557 -0.2222 0.17267 -1.1859 -0.53278 -0.51457 0.46108 0.23746 -0.23996 -0.16828 -0.52769 0.54597 0.48812 0.60362 0.034421 0.045706 -0.40814 -0.058996 -0.0070963 -0.15777 0.073972 0.28266 0.11927 -0.1581 0.077107 0.6667 -0.2663 -0.40921 0.17868 -0.11383 -0.15266 -0.23829 0.096639 -0.1839 -0.44069 -0.026846 0.1908 0.162 0.11423 0.32552 -0.21277 0.079207 0.044771 -0.16845 -0.58828 0.49321 -0.036463 -0.38156 -0.079198 -0.27422 0.31135 -0.29639 0.12363 -0.18859 0.15859 -0.41822 -0.042198 -0.22976 0.081013 -0.92624 0.013507 -0.09921 -0.34033 0.0053544 -0.28104 -0.099204 0.26162 -0.21736 0.63473 -0.11425 -0.20586 -0.76432 -0.36939 -0.36307 -0.21075 -0.1359 0.11702 -0.21829 0.61045 0.28929 0.26222 0.1242 -0.098886 -0.13493 0.73127 -0.26687 -0.1494 0.22206 0.51931 -0.037192 0.50819 -0.080875 -0.67195 -2.152 -0.18616 -0.055403 0.081232 0.095763 -0.0047476 0.32538 -0.89188 0.28453 -0.31677 -0.13532 -0.49646 0.38911 -0.6597 -0.11258 -0.62256 0.63368 -0.048439 0.31881 0.12348 0.3614 -0.18697 0.16883 -0.2856 0.54837 0.27126 -0.16639 0.21311 0.49046 -0.03243 0.11235 0.020791 -0.34015 -1.2694 0.68934 -0.072722 0.58404 -0.60054 -0.46684 0.38009 -0.18587 -0.26027 0.38971 0.0022645 -0.71168 -0.34996 0.045597 -0.088387 -0.42081 0.35399 0.19478 0.13565 -0.124 0.20226 -0.014367 -0.1776 0.27745 -0.52034 0.010035 -0.22087 -0.73653 0.37962 0.80596 -0.18665 0.38564 -0.23645 0.81241 -0.36009 -0.26744 0.21783 -0.21062 -0.96716 -0.37751 -0.22046 -0.072834 -0.045674 -0.22077 -0.26853 0.24075 -0.11997 -0.19177 0.40175 0.091909 0.20002 0.7707 0.48941 -0.56138 0.059005 0.54444 -0.11181 0.361 -0.21735 0.034568 -0.41268 -0.084086 0.041807 -0.2604 0.38708 0.83979 0.30825 0.01574 -0.19921 -0.12122 0.53326 0.39331 0.33743 -0.18729 0.24932 -0.29563 0.061664 -0.69746 -0.41909 0.62088 -0.59732 0.071345 -0.1952 -0.0083533 0.39988 0.62387 0.74966 0.30136 0.27665 0.077831 0.30902 0.080835 0.43454 0.50057 0.043171 -2.5741 -0.13551 -0.19528 0.0022354 0.36387 0.24651 -0.40258 0.24291 0.23533 -0.37952 -0.11685 0.5098 0.68743 0.061771 -0.015588 0.45308 -0.19785 0.0091053 0.35285 0.38726 0.07509 -0.38054 0.2518 -0.1296 -0.14158 0.24198 0.16723 -0.26521 -0.033386 -0.036337 0.14012 0.24237 0.29923 -0.16977 0.17749 0.13041 -0.41447 -0.053642 -0.61354 -0.34938 0.61619 0.17476 0.83927 -0.38295 0.05692 -0.24266 0.15038 0.16841 -0.10148 -0.11338 0.051383 -0.17738 0.13843 0.26118 -0.15339 -0.056197 0.34644 -0.19209 -0.23687 -0.012009 0.89849 -0.38983 -0.026651 -0.33041 -0.20354 0.25124 0.057136 -0.35449 0.02527 -0.034285 -0.548 -0.46539 -0.23074 0.19754 -0.1704 0.40953
bird 0.28073 -0.19143 -0.77328 0.043821 0.74951 0.10296 -1.8164 -0.36211 -0.2396 -0.16995 0.72547 -0.098407 -0.039997 -0.64691 -0.060186 -0.074948 -0.51027 -0.044466 -0.4835 0.32191 0.015358 -0.39927 0.13253 -0.47938 -0.092666 -0.18806 -0.58762 0.31056 -0.36333 -0.14051 0.94164 -0.11947 0.13392 -0.011054 0.45668 -0.39399 0.65724 -0.12011 -0.12924 0.17949 -0.48177 0.13516 -0.60105 -0.032381 -0.59789 0.38669 -0.37033 0.1524 -0.085631 -0.21064 0.14633 0.24227 0.28872 0.52846 -0.039534 0.41031 0.28632 -0.0062003 0.30757 -0.16541 -0.28099 -0.49479 0.14091 0.5405 -0.63208 -0.12499 -0.10082 0.37169 -0.2449 0.14748 -0.71713 -0.020662 0.01965 0.11412 0.16882 0.12228 0.0805 0.083742 0.18621 0.30078 -0.37596 0.25774 -0.032878 -0.2686 -0.26815 0.071748 -0.20274 -0.072047 0.066716 -0.13477 0.09056 -0.32683 0.49402 -0.30218 -0.30489 -1.1091 -1.6373 0.25947 -0.2914 -0.31196 0.18543 0.33923 0.088028 0.12069 0.025333 -0.14446 0.057282 0.31068 -0.36972 -0.3037 0.10864 0.33448 0.47688 0.23633 0.11791 0.42938 0.022189 -0.32129 -0.43182 -0.40175 0.039856 -0.30439 -0.03844 0.51586 0.039649 -0.22276 0.078368 0.23747 -0.73747 -0.5904 -0.2092 0.24891 -0.10397 0.31716 0.24611 0.44761 0.012704 -0.57808 0.14387 0.58941 -0.46922 -0.082724 -0.021121 0.13007 -0.14778 -0.31928 -0.44969 0.4091 0.64859 -0.61979 -0.2128 -0.13221 0.0096415 -0.48039 -0.037411 0.26006 -0.3617 0.29481 0.418 0.45546 -0.13858 0.22731 -0.16112 0.17614 -0.61308 0.35479 -0.35836 -0.18139 0.60102 -0.040614 -0.38721 -0.21515 -0.20174 0.65305 -0.21523 0.30878 0.49273 -0.25362 -0.34531 -0.043904 0.69472 -0.02957 0.15432 -0.2446 0.042249 0.018318 -0.19896 -0.065856 -0.15118 -0.22809 0.028913 -0.16206 0.12744 0.3863 -0.53212 -0.23707 -0.034336 -0.08888 0.065762 0.50977 -0.054081 -0.057271 0.048192 0.29942 -0.11143 0.44183 0.048586 0.73124 -0.051072 0.55674 -0.17925 0.31911 0.31505 0.42861 0.21704 0.18982 0.098963 0.022503 -0.39303 0.15203 -0.22375 0.049542 -0.041272 -0.40078 -2.7743 -0.012552 -0.52073 0.74938 -0.57602 0.21304 0.28686 -0.062633 -0.15133 -0.30031 0.043189 0.18574 0.28319 -0.29552 0.29383 0.35872 0.30681 0.48057 0.064441 -0.067222 -0.49483 -0.010707 0.053564 0.67378 0.32738 0.28816 -0.45708 -0.09243 0.26937 -0.07146 0.086035 0.11803 -0.31605 0.34399 0.56541 -0.056409 -0.53539 -0.37744 -0.068821 0.29276 -0.35786 0.53724 0.0092256 -0.097474 0.36226 0.3499 0.14557 0.075885 0.73095 0.010468 -0.30855 0.39264 -0.071669 -0.098742 -0.64085 -0.26675 0.81335 -0.068475 0.39596 -0.056172 0.19991 0.15967 -0.042812 -0.22168 0.15586 0.057374 -0.16273 -0.18759 -0.23901 -0.18183 -0.27781 -0.19324 0.60811 0.0080374 0.32279 0.63251
boat 0.12293 -0.16921 -0.055565 -0.10325 -0.25737 0.23375 -1.6794 -0.15986 -0.45395 -0.11151 0.17284 -0.51251 -0.57006 0.14135 -0.41583 -0.069223 -0.14866 -0.33084 -0.0074952 0.354 0.08387 0.21647 -0.37128 -0.18914 0.33123 -0.15169 0.38075 0.12787 0.18966 0.38854 0.47458 -0.33121 -0.19932 -0.3157 -0.22772 -0.18236 0.48744 -0.015396 -0.033563 0.17757 -0.034 -0.23846 0.23792 -0.19035 -0.2224 0.36178 -0.14628 0.28524 -0.33052 -0.24161 0.28484 -0.42839 -0.60299 0.33855 -0.38573 -0.07042 -0.11377 -0.072701 -0.2794 -0.16875 0.43205 -0.053054 -0.83658 0.48592 -0.075038 0.30599 0.48412 -0.12329 -0.38865 -0.53069 0.20838 -0.53874 -0.27203 0.030839 -0.40162 0.14713 0.035272 -0.023371 0.74506 -0.039373 -0.40871 0.44638 0.3404 0.32888 0.11987 -0.10724 -0.063613 0.25355 0.27282 -0.22163 0.15248 -0.81683 0.23356 0.35491 -0.19532 -1.4868 -1.5929 -0.26744 -0.64251 0.36813 -0.14708 0.31136 0.28674 -0.61604 -0.018393 0.097817 -0.01069 -0.63406 0.18166 -0.20258 0.14556 -0.61618 0.059151 0.38058 -0.12154 0.39643 -0.11664 -0.1712 0.17281 -0.15911 -0.032049 0.034357 0.092503 -0.71757 -0.24857 0.17689 -0.029529 0.23182 0.5039 -0.65219 0.21434 0.18897 0.59532 -0.50898 0.24427 0.15977 -0.16562 -0.54083 0.6965 0.57353 -0.18434 0.15765 0.16266 0.24667 -0.22326 0.44203 -0.47586 0.3941 -0.35726 -0.41965 -0.23175 -0.28693 -0.08689 0.029778 -0.15607 0.22344 -0.64226 -0.28222 -0.35157 0.20501 0.17441 0.19353 -0.19635 -0.037227 0.24231 0.25808 -0.35676 0.013077 -0.09357 0.12736 0.42479 -0.16192 -0.41071 0.18984 0.40407 0.021733 -0.13483 0.4517 0.13358 -0.038795 0.55309 -0.27455 0.13048 -0.35497 -0.014308 0.22392 -0.15099 0.35776 -0.45458 -0.57668 -0.071078 -0.39488 -0.61301 0.12896 -0.41697 0.36049 0.7494 -0.36058 -0.25544 -0.3866 0.44411 -0.20779 -0.97289 -0.07514 -0.094725 0.23302 -0.10253 -0.20368 0.52257 0.059937 -0.35703 0.82856 -0.12226 0.47154 0.24188 0.71344 -0.41065 0.23736 0.26101 -0.14716 0.55505 0.20319 0.37286 -0.096837 -3.4194 -0.47295 0.09679 0.3798 -0.19007 0.035464 0.2028 0.91285 0.036827 -0.18579 0.18786 -0.0739 0.39365 0.4857 -0.31553 0.31511 0.16231 -0.47253 -0.067289 0.053092 -0.30371 0.4236 0.43653 -0.76602 -0.017641 -0.80071 0.40702 -0.91132 0.23657 0.37537 -0.34975 -0.2213 -0.093308 0.26746 -0.20201 -0.21048 -0.14497 -0.21998 -0.078557 -0.068037 0.39519 0.35724 0.39503 -0.12084 0.28588 -0.36006 -0.085782 -0.49235 -0.26575 -0.074171 0.44397 0.0064701 0.50716 0.39936 -0.40013 -0.02097 0.14516 -0.53498 -0.0051665 -0.16327 0.74326 0.34516 -0.04423 -0.12394 -0.58026 -0.33434 0.31332 -0.58945 0.3027 -0.18637 -0.18466 0.18869 -0.024872 -0.069657 0.27083 0.21468
bottle -0.2193 0.12186 0.57351 0.11134 0.59919 0.38592 -1.7447 -0.28111 0.46449 -0.83884 0.1119 -0.48408 -0.5286 -0.67795 0.18034 0.24131 -0.36535 0.80459 -0.44565 0.35103 0.49096 -0.25775 -0.011075 -0.31718 -0.19413 0.18763 0.16984 -0.23345 0.31732 -0.29217 0.47727 0.2542 0.17147 -0.16984 0.51214 0.24541 0.28059 -0.094113 0.19464 0.26382 -0.36574 -0.5853 0.035705 -0.035397 0.34193 0.26442 0.45792 -0.087294 0.0067326 0.20267 -0.044881 0.027696 0.47728 0.41634 0.49615 0.1976 0.06327 0.38154 0.30379 -0.0017637 0.37885 -0.69566 -0.60624 0.58151 -0.34439 0.36658 0.30263 0.39409 -0.047171 -0.26788 0.080869 0.04571 0.61778 0.097629 -0.1482 -0.066544 0.15733 -0.057153 -0.10458 0.020583 0.3418 1.1761 0.61673 0.11964 -1.192 0.53492 -0.44154 0.70673 -0.27985 0.033643 0.28549 -0.13442 0.15585 0.24377 0.082028 -0.3913 -1.6007 -0.43738 -0.25183 -0.040709 -0.13183 -0.69659 0.6096 0.025873 -0.13301 0.033738 0.12468 0.21008 0.067938 0.32964 0.3925 0.33044 -0.35425 -0.48715 0.28604 0.075618 0.40919 -0.32153 0.16917 -0.14697 0.013886 -0.33364 -0.29602 -0.27513 -0.21092 -0.018386 0.16552 0.06133 -0.42249 0.67873 -0.32697 -0.31591 -0.38632 -0.057396 -0.37073 -0.023982 0.15952 0.056123 0.18315 0.27033 -0.45458 -0.10658 0.23997 0.13042 -0.2022 -0.068384 0.26136 -0.43212 0.34622 0.76464 -0.016558 -0.10757 -0.37946 -0.23129 0.58504 0.44901 0.16533 -0.33968 -0.22668 -0.29491 -0.2716 0.16161 -0.31865 -0.022428 -0.041764 -0.27974 0.37566 -0.19877 0.03425 -0.087652 0.099053 -0.20167 0.079447 0.35071 0.32267 0.17871 0.30341 0.17211 0.26357 -0.012958 0.27846 -0.038452 0.0048499 -0.4449 0.64525 -0.11161 -0.63347 -0.1355 -0.10792 -0.056603 -0.33069 -0.032337 0.016248 0.19982 0.83338 -0.28576 0.53435 -0.63134 0.45016 -0.1305 0.92488 0.45686 -0.38144 0.2951 -0.43148 -0.08767 0.07721 0.22007 -0.038639 0.12752 -0.16416 -0.31894 -0.10522 0.33515 -0.3282 0.38592 0.45108 -0.41603 -0.66625 0.64166 0.3274 0.31116 -0.14134 0.36832 -2.8663 -0.29818 0.1167 -0.065402 0.0062622 0.45308 -0.16734 -0.57083 -0.1953 -0.50919 -0.017009 0.0097917 -0.55019 -0.0095064 0.46044 -0.60557 -0.2496 -0.33599 -0.095087 0.56563 0.26739 0.17702 0.10638 0.49883 0.25052 -0.40068 -0.014897 -0.3167 0.5642 -0.32667 0.43117 -0.3166 -0.048474 0.2385 0.38064 0.90156 -0.2917 -0.45354 -0.12868 -0.63851 0.45096 0.52535 0.47525 0.1217 -0.45114 0.12094 -0.34588 -0.074598 -0.014405 -0.1459 -0.28516 -0.21845 0.093105 0.35551 -0.3596 0.76898 1.6222 0.13645 0.25331 -0.073631 0.14325 -0.10149 -0.28674 0.017432 -0.36076 0.017564 -0.48432 0.13181 0.47727 0.041656 0.1668 -0.08144 -0.23481 -0.18352 0.14053 0.3698
bus 0.44378 -0.14629 -0.2178 -0.058815 -0.15719 -0.19588 -2.1185 0.27112 -0.25216 -0.21789 -0.11485 -0.17966 -0.21677 0.21276 -0.0256 -0.096212 -0.56295 -0.347 -0.18683 0.14432 0.13357 0.091263 0.80106 0.49682 0.1902 -0.048713 0.13046 -0.87615 0.46912 0.079616 -0.34852 -0.34797 0.67192 -0.25715 -0.5798 -0.16287 0.30984 -0.22839 -0.40052 0.15223 -0.12452 0.21282 0.18876 -0.24162 -0.11699 0.24758 0.16226 0.35449 0.46195 -0.38871 -0.46322 0.027237 0.56536 -0.45139 -0.26815 0.095389 -0.31316 0.029597 -0.13365 0.060522 -0.67152 0.075682 -0.89673 0.22492 0.11837 0.08755 -0.15347 0.015865 0.90702 0.11359 0.2073 0.025007 -0.44779 0.0079732 -0.18882 -0.13508 -0.53976 0.017319 -0.14766 -0.24001 0.26298 0.69283 0.34713 -0.2774 0.1607 0.16704 0.20457 0.12122 0.55812 -0.27423 0.6229 0.56379 -0.12412 0.54396 -0.39834 -0.2971 -1.3292 0.078125 -0.0025442 -0.13216 -0.00089342 -0.04737 -0.22278 0.5338 -0.079888 -0.12338 0.098877 -0.40386 -0.10388 -0.37706 0.10711 -0.40254 0.11861 0.23156 0.4727 -0.10282 0.10175 -0.13019 0.44997 -0.55619 -0.31962 0.30667 -0.35687 -0.17061 -0.27561 0.25916 0.059066 0.089054 0.048607 -0.8493 0.23683 -0.23398 -0.085126 -0.23791 -0.69289 0.049522 0.56309 -0.03422 0.14642 0.0033259 -0.28553 -0.49746 -0.36099 -0.17585 -0.2592 0.23781 -0.090474 0.45561 -0.63676 0.42573 -0.17215 -0.27177 1.027 -0.18631 -0.14567 -0.57155 0.0080743 -0.040512 0.32259 0.10907 -0.2514 0.01461 -0.1774 -0.25195 -0.31254 0.27406 -0.58608 -0.55799 -0.53375 -0.34629 0.27109 -0.29978 -0.42663 0.032543 0.67166 -0.077914 0.026011 -0.23108 -0.18886 -0.45252 0.2893 0.33759 0.0074325 0.13905 -0.60691 -0.49072 0.061976 0.16796 0.14139 0.36883 0.015979 -0.183 0.27834 -0.072915 -0.12696 -0.41155 0.60716 0.15216 -0.11285 0.20712 0.20402 -0.38564 -0.69688 0.35133 0.46467 -0.11832 -0.93525 0.30773 0.76658 -0.17164 0.20436 0.35332 -0.21408 0.16096 0.051085 0.81225 -0.16659 0.32847 0.38167 0.35198 0.15163 -0.57846 -0.22838 -0.55492 -3.3954 0.18377 0.3513 0.091373 -0.28454 -0.024702 0.18217 0.4881 0.084538 -0.11181 0.12847 -0.51167 0.23992 0.47052 0.20438 -0.047363 -0.61446 -0.028795 0.15156 0.29187 -0.2711 0.41979 1.058 -0.27632 -0.095636 -0.43229 -0.29653 -0.47182 0.27206 -0.17823 -0.42496 0.1773 0.075124 -0.29045 -0.15218 -0.76868 -0.45896 0.38911 -0.35101 -0.079099 0.54862 0.45173 0.33917 -0.37812 -0.16568 -0.49259 0.32826 -0.16594 -0.38485 -0.71142 0.2563 0.090207 -0.081553 -0.25782 0.11128 0.10439 -0.13249 -0.39978 -0.53066 0.062188 0.36788 -0.23152 -0.090865 -0.38056 0.1317 -0.0015471 0.33757 -0.23227 0.10359 0.22333 -0.39791 0.46841 0.027324 0.3759 -0.1696 -0.93696
car 0.59128 -0.38927 -0.16089 0.043683 -0.43888 0.11397 -2.9075 0.13149 -0.30903 -0.57064 -0.72339 -0.44372 -0.12936 -0.32073 0.50047 0.47942 -0.43085 0.0043741 -0.24877 0.35756 0.37463 0.24415 0.31888 0.37566 -0.43378 0.024505 -0.12741 0.044103 -0.28542 -0.091235 -0.29085 -0.22266 0.57845 0.12971 -0.34391 0.62231 0.43285 0.32978 0.10594 0.29265 -0.21349 -0.22457 0.19687 -0.41696 -0.029295 -0.23216 0.16137 -0.35784 0.14083 -0.055299 -0.18931 -0.31986 -0.16333 -0.69343 -0.50978 0.0046988 -0.16013 -0.081805 -0.04824 0.35418 -0.48528 -0.6288 -0.69358 0.24551 -0.2981 0.64259 0.16259 -0.18911 -0.11579 0.61012 0.32423 -0.079747 -0.77618 -0.3805 -0.011814 -0.21254 -0.0072631 -0.08473 -0.18196 0.21374 -0.20055 0.19745 -0.25071 -0.022478 -0.080953 -0.32007 0.09651 0.49391 0.16174 -0.41839 -0.24576 -0.48437 -0.13511 0.42573 0.15935 -1.5587 -1.7873 0.4783 0.48696 0.053828 0.22819 -0.34922 -0.20339 -0.26252 0.23623 -0.21289 0.020512 -0.18249 0.21663 -0.68779 0.26928 -0.41402 -0.15749 -0.30834 -0.42707 -0.16455 0.92904 0.42403 0.71373 0.37296 0.045048 -0.037611 0.044986 -0.22873 -0.20869 0.20381 0.4948 0.32331 -0.052836 -1.1192 0.23077 -0.42645 0.16459 -0.14793 -0.81528 0.16381 0.45842 0.086122 0.30472 0.48399 -0.43967 -0.16521 0.30797 -0.083868 0.042385 0.45544 -0.68714 0.15083 -0.88408 -0.081309 0.069606 -0.40299 0.40567 -0.19859 -0.0099409 -0.59597 -0.53912 -0.20026 0.09809 0.43192 -0.0067457 -0.093223 0.034293 -0.040316 0.089919 -0.59099 0.030202 -0.086335 -0.51876 0.028882 0.26756 0.052378 -0.58322 0.12774 -0.53577 0.14655 0.1084 0.65576 0.24364 -0.4989 1.0592 0.017458 -0.3723 -0.54288 0.47597 -0.052363 0.070445 0.13009 -0.0087097 -0.12207 -0.64495 -0.3063 -0.18819 -0.16172 -0.17856 -0.28586 0.12392 -0.56563 -0.020037 0.16393 -0.42038 -0.22764 0.040514 0.14518 0.051162 0.30491 -0.2391 0.16743 0.36079 -0.40354 -0.10252 -0.048767 -0.25423 0.42577 0.25942 0.016332 0.27252 0.42046 0.6839 -0.10875 -0.0012572 0.41384 0.019531 0.27056 -3.8851 -0.19353 0.49401 -0.48394 0.21912 0.14868 -0.054421 0.28822 0.25747 -0.65217 -0.014497 -0.075005 0.62814 0.41828 0.45329 -0.41764 -0.47087 0.070643 -0.10363 0.17797 0.24242 0.037805 0.98327 -0.12581 -0.54893 -0.3346 0.51286 -0.15815 0.69136 0.48616 -0.89659 0.15535 -0.29758 0.20446 -0.20309 0.2226 0.35223 0.19111 -0.37288 -0.84139 0.82751 -0.13021 0.42799 0.29001 0.25684 -0.29582 -0.46313 -0.10858 -0.084474 -0.25509 0.147 -0.32186 -0.19282 0.34728 -0.32396 -0.23795 -0.20794 -0.19442 -0.12563 0.088194 0.46129 0.37625 0.1372 -0.015414 0.068577 0.029189 0.16133 -0.22606 -0.1766 -0.85242 -0.24012 -0.25876 -0.16249 0.078701 -0.077231 -0.56916
cat 0.2111 0.21763 -0.52638 -0.42277 0.84672 -0.038383 -1.9201 -0.30959 0.021942 -0.49525 0.77306 0.16158 -0.19716 -0.57098 -0.053608 0.070278 -0.60636 -0.12083 -0.57444 -0.037019 0.26274 -0.03365 0.12242 -0.14652 0.26033 -0.29463 0.1152 0.036812 0.0034356 -0.00021683 0.55426 -0.50978 0.23785 0.0254 -0.047775 -0.40466 0.2614 -0.34749 0.37919 -0.1943 0.071057 -0.6359 -0.1457 -0.0025429 -0.29784 0.30019 -0.5358 -0.087513 -0.021339 -0.17687 0.19113 -0.30737 -0.56812 0.46192 0.19877 0.20665 -0.093993 0.29382 0.3273 0.05805 -0.73197 -0.77637 0.43869 0.185 0.23261 0.35647 -0.36687 0.0012256 -1.2229 0.36615 -0.036965 0.36553 0.10303 0.13494 -0.032071 -0.37704 0.15676 -0.064954 -0.14425 0.4554 0.69572 0.17424 -0.10686 0.50207 -0.45237 0.18477 -0.12709 0.65327 0.029422 0.16903 -0.13607 -0.66783 -0.15619 -0.0097961 -0.092976 -0.73335 -1.8187 0.026675 0.28343 -0.20409 0.027432 -0.24477 0.1807 0.05601 -0.1484 0.10702 -0.071081 0.035108 -0.24279 -0.2471 0.35338 -0.12025 0.51993 -0.03251 -0.061425 0.27608 -0.10754 -0.058642 -0.21013 -0.32711 -0.56485 0.053328 0.8146 0.89608 0.56984 -0.3665 0.18799 0.071857 -0.24233 -0.405 -0.62646 -0.0054031 0.18839 -0.62807 -0.48526 0.20509 0.01556 -0.055592 -0.31686 0.44582 -0.74506 -0.23464 0.35697 0.27672 -0.034658 -0.29553 0.10892 0.49815 0.04539 -0.41345 0.33444 -0.032795 0.063787 -0.26493 -0.26112 -0.090767 0.1395 -0.45536 0.66697 0.83962 -0.052895 -0.14638 -0.43999 0.53076 0.080568 0.13796 -0.19015 -0.23527 -0.17632 -0.1968 -0.22669 -0.55286 -0.21735 0.55578 -0.37714 -0.17865 0.40321 -0.52347 -0.19288 -0.095479 -0.48039 0.023991 -0.086424 0.14968 -0.12867 0.32547 -0.49989 0.17529 0.39106 -0.19364 0.05909 0.032595 0.24663 -0.35267 -0.28403 -0.47115 0.48414 0.020973 0.59849 0.04387 0.0021328 -0.20931 -0.20211 0.38589 0.39548 0.23038 0.24491 0.27834 0.56828 -0.14234 0.67488 0.0064852 0.029645 -0.28274 0.053661 -0.25656 -0.028487 -0.021258 -0.017985 0.48703 -0.36394 0.11476 -0.26886 -0.28556 -2.9508 -0.25368 -0.87877 -0.041607 -0.30935 -0.2756 0.57268 -0.11079 -0.43844 -0.44036 -0.58429 0.18454 0.77725 0.49392 -0.10841 0.32613 0.35734 0.18962 -0.1369 0.67461 -0.081401 0.24326 0.40665 0.32347 0.040822 0.22333 -0.012498 0.064806 0.032215 -0.1861 0.078454 0.26412 -0.37658 0.42116 0.56942 -0.16653 -0.16693 -0.31635 -0.11354 0.16122 -0.33425 0.56519 0.30971 0.21785 0.37175 0.43842 -0.028513 -0.36783 0.72722 0.21965 -0.51812 0.33716 -0.163 0.34806 -0.12455 -0.4617 0.5857 0.34859 -0.34966 -0.13121 -0.16664 -0.50079 0.0010191 0.35112 0.024121 -0.38078 -0.15757 0.13171 0.63291 -0.32111 -0.04626 -0.17971 -0.0013804 -0.15076 -0.24064 -0.051365
chair -0.62563 -0.4951 0.47549 -0.0028159 0.35209 0.054375 -1.4594 0.0016169 -0.44608 0.48866 0.24368 -0.4115 0.26968 -0.51118 -0.34483 0.17336 -0.10874 0.041862 -0.028469 -0.14617 -0.24164 0.21313 -0.21393 0.31035 -0.17389 0.58373 0.017292 0.16593 0.24106 -0.60922 0.32072 0.056992 -0.51213 -0.26028 0.11118 -0.24518 -0.061289 0.31857 0.60634 0.64857 0.19962 0.014042 0.54694 0.17594 0.45754 -0.32724 0.33433 0.26451 -0.09753 0.16252 -0.14559 0.099733 -0.53495 -0.08588 0.23491 -0.28663 -0.32091 -0.51937 0.22908 -0.14843 -0.56377 -0.6268 -0.089314 -0.32318 0.072028 0.65303 0.50854 0.77087 -0.26331 -0.57089 0.072674 0.15558 -0.17878 -0.095389 0.035496 -0.51225 0.38311 -0.24352 0.60937 0.19102 0.12785 0.036133 -0.046281 -0.31351 -0.14062 -0.14823 0.02462 0.11809 -0.80472 -0.021916 0.78925 0.33018 0.27863 0.57015 -0.2815 -0.73719 -2.193 -0.33551 -0.10755 0.35522 -0.22969 -0.04652 0.82762 0.070776 -0.25732 -0.57111 -0.97453 -0.20153 0.10285 -0.19778 0.036454 -0.13434 0.44097 0.15153 -0.12424 0.77431 -0.58192 0.076022 0.30965 -0.30852 -0.26531 -0.072477 0.30099 -0.28645 0.2617 -0.57151 0.0845 0.18511 -0.25165 0.20756 -0.27076 0.29044 -0.79317 -0.022647 -0.72379 0.66137 -0.28619 0.18246 -0.088431 -0.0094773 0.16711 -0.43902 0.49006 0.89642 0.328 0.92033 -0.062611 -0.205 0.31476 -0.20144 -0.98566 0.30999 -0.15752 0.10738 -0.036841 0.10851 -0.15293 0.40507 0.39915 0.35749 -0.047364 0.31515 0.25984 -0.35597 -0.24528 0.37639 -0.15127 0.29819 -0.11596 -0.46846 -0.21879 -0.6007 -0.12174 0.12712 0.42279 -0.24407 0.051994 0.24433 0.16666 0.3219 0.18274 -0.14842 0.20777 0.42703 0.27387 0.81674 0.30231 -0.43029 -0.43577 -0.41055 -0.39495 -0.40164 -0.014016 0.32516 0.54565 -0.05069 -0.67293 -0.066862 0.47456 -0.18924 0.8787 -0.38251 0.29215 -0.26427 0.68377 0.3651 0.39154 0.00095815 0.31327 0.015755 0.0081296 -0.041415 -0.49039 0.17712 0.032919 -0.02745 -0.46257 0.45174 0.11595 -0.14893 0.36589 -0.34775 -0.26156 0.0034411 -2.9961 -0.86867 -0.068643 0.58849 -0.018185 -0.35817 0.1486 -0.24018 0.36955 0.22742 -0.23418 0.015015 0.06884 0.12927 -0.31297 -0.042718 -0.23543 0.17349 0.084707 0.64622 0.55731 -0.3156 0.4627 0.29737 0.32805 0.48717 0.16056 0.02414 0.6188 0.28042 -0.51668 0.54136 0.20154 0.32718 0.52893 -0.18739 0.1143 -0.029119 0.06403 0.063039 -0.010128 -0.048154 0.0091543 -0.090836 -0.27443 -0.11346 -0.14016 0.14623 -1.0049 0.49882 -0.075981 0.17465 -0.20296 0.10495 0.16934 -0.27945 0.18267 0.14885 -0.058518 -0.38866 -0.090581 0.12453 0.16906 -0.21148 0.30018 0.37142 0.038477 0.26881 -0.34906 0.31491 0.35539 -0.14897 -0.41827 0.26554 0.19366 -0.54739
cow -0.28264 -0.52206 -0.057515 -0.046203 0.42852 0.18715 -1.6037 -0.20396 0.26914 -0.54596 0.57356 -0.17478 0.39408 -0.66132 0.15689 0.3146 -0.36423 -0.4805 -0.51935 -0.085512 0.085881 -0.22161 0.23926 0.14309 -0.59948 -0.083865 -0.31903 0.45446 -0.63427 -0.23123 0.29398 0.26633 0.7906 0.10044 0.24117 -0.14258 -0.2513 0.47551 0.41902 -0.14044 0.32691 0.081145 0.051303 0.082221 -0.1961 0.49478 0.4128 -0.33741 -0.1345 0.21732 -0.074274 -0.42265 -0.43881 0.0040548 0.092628 -0.015363 0.089286 0.17525 0.11661 -0.39634 -0.46183 -0.13227 -0.090263 0.26541 -0.0010086 0.26284 0.25336 -0.073051 0.24735 0.21734 0.012256 0.087475 0.32997 0.215 0.15111 -0.40227 -0.25026 -0.25636 0.14128 0.34212 -0.17441 0.26789 0.14686 -0.10851 -0.45176 0.096066 -0.59244 -0.0092919 -0.20186 -0.43321 0.64152 -0.062933 -0.15238 -0.2395 -0.21921 -0.54885 -0.96932 -0.37029 0.31508 -0.038554 0.47611 0.96237 -0.20167 0.32259 -0.21616 -0.0054525 -0.14458 0.14277 0.15234 0.025315 -0.39478 0.029387 0.48784 -0.32138 0.36812 0.096794 0.0279 -0.26777 0.079224 0.4051 -0.27672 0.55215 0.038832 0.38618 -0.044174 -0.20756 0.10781 0.012276 -0.82885 -0.27864 -0.19644 0.22983 0.46409 -0.084096 0.19701 -0.20071 -0.2449 -0.54272 -0.2019 -0.054359 -0.43263 -0.4248 -0.39685 0.23398 -0.26355 -0.86817 0.31941 0.18353 -0.0056986 -0.071959 0.068195 0.43662 -0.20929 -0.018696 -0.26657 -0.05584 0.30303 -0.05105 0.45107 -0.09796 0.17969 -0.23728 -0.55559 0.44475 -0.13288 -0.32353 0.11357 -0.37897 0.3311 0.38907 0.012085 -0.23972 0.48466 0.11806 0.070535 -0.032391 0.17186 -0.078087 -0.80888 -0.24273 -0.38044 -0.17037 -0.19722 -0.148 -0.12127 0.12961 -0.41751 -0.31511 0.90589 0.12572 -0.15288 0.27983 0.14581 0.25761 0.1468 0.11981 0.61981 -0.050846 0.22291 -0.01866 0.1844 -0.32211 0.19161 0.34594 0.088649 -0.37038 -0.41676 0.24322 0.13694 -0.1314 0.06057 -0.09142 0.33404 -0.12324 -0.018774 -0.018926 -0.10954 0.53319 -0.30854 0.47923 -0.23093 0.091152 -0.11467 -0.14628 -2.2657 -0.79672 -0.17886 -0.38848 -0.073568 -0.37251 0.42776 -0.17531 0.0087038 0.10057 0.07479 -0.069471 0.086145 -0.10238 0.18856 0.18487 0.51768 0.18732 -0.13319 0.25407 -0.72778 -0.13598 0.25286 -0.45354 0.39805 0.35138 -0.025679 -0.46771 0.82798 0.13641 0.46384 0.37284 -0.7607 -0.06877 0.081846 -0.068692 0.16578 -0.083899 0.02854 -0.63279 0.093204 0.30183 0.435 0.066057 -0.25038 0.64005 -0.042531 0.26094 -0.1918 -0.27586 -0.7043 0.40784 0.090379 0.37074 0.030338 -0.77282 0.82711 0.25709 -0.3561 -0.1124 0.51866 -0.24023 0.12403 -0.30316 0.12111 -0.46393 -0.27261 0.16176 0.09249 0.35451 0.020918 0.0068084 0.38184 -0.11375 -0.11734 0.53307
diningtable -0.17919 -0.26129 -0.04945 0.074301 -0.016495 -0.40979 0.68639 -0.31834 -0.021148 0.40979 -0.55985 0.08453 -0.49922 -0.22415 -0.076995 -0.046083 0.24589 -0.049269 0.14522 -0.032519 0.108 -0.5737 0.22615 0.17037 -0.41286 0.24005 0.1313 -0.043586 0.16271 -0.013313 0.33124 0.1103 0.17477 0.10123 -0.097032 0.17026 -0.21259 -0.080184 -0.023089 0.24003 0.26038 -0.48554 0.16895 -0.11053 -0.16445 0.032644 -0.14246 0.28395 -0.12083 -0.025668 -0.18111 -0.22427 0.12342 -0.17643 0.0657 0.49082 -0.10258 -0.18886 -0.011151 0.27156 -0.25246 0.073584 0.2735 0.1691 0.21571 -0.1897 -0.43726 0.60136 0.23661 0.13461 -0.24667 -0.078549 0.42251 0.24088 -0.010549 0.14344 -0.23004 0.063299 0.30399 0.010941 0.080957 0.41293 -0.15048 0.10953 -0.26179 -0.11395 0.095886 -0.12326 -0.29911 0.27728 -0.062013 0.0029225 0.15425 0.01416 0.010087 0.16975 0.42237 -0.16008 -0.29151 -0.061654 0.17283 -0.11973 -0.13878 -0.053416 0.0026372 -0.16529 -0.24856 0.19267 -0.38881 -0.071447 0.030338 0.057842 0.27809 -0.017324 0.16456 -0.32996 -0.25534 0.087491 0.25131 -0.78759 -0.18151 0.32093 0.067146 0.20642 0.3841 -0.14601 -0.21723 0.12964 0.21315 -0.72271 -0.20863 0.23403 -0.003966 0.11113 -0.27012 -0.077311 0.18785 0.025462 0.2645 -0.2315 0.33539 -0.14727 0.13937 -0.1044 -0.22464 0.06135 -0.074003 -0.44221 -0.24148 -0.11185 -0.014909 -0.0043282 0.24208 0.01554 -0.26543 0.032855 -0.1445 0.11085 0.10816 0.35621 -0.1509 -0.048748 0.19713 0.1007 0.05573 0.087537 0.14373 0.060592 -0.2774 -0.00408 0.23814 -0.13922 0.044508 0.034719 0.22369 0.0089101 0.021546 0.17048 0.015348 -0.072804 0.19477 -0.18996 -0.32072 0.34468 -0.012328 0.36763 -0.084604 0.040912 0.30808 0.38501 -0.11139 0.038058 -0.52414 -0.03035 0.097398 0.50415 -0.13662 -0.22595 0.19252 -0.20405 0.10751 -0.050571 0.22933 -0.26316 0.15866 -0.31723 0.31264 -0.2426 -0.26401 0.15547 -0.44285 0.17403 0.015167 0.091541 -0.086882 -0.2582 -0.30159 0.0067563 -0.12389 0.25744 0.47264 -0.22023 -0.024993 -0.14039 0.32641 0.052372 0.40464 -0.38147 0.044461 0.043002 -0.072677 -0.22082 -0.027656 -0.04231 0.14831 0.023075 -0.19186 -0.24811 0.085425 -0.056883 -0.20938 -0.03398 0.31823 -0.54917 0.065854 -0.0097534 0.38572 0.027627 0.18587 0.43861 0.24696 -0.052455 0.24317 -0.15901 0.0096757 -0.26223 0.030447 0.2969 0.36645 -0.07937 0.034855 -0.083513 0.058716 0.29842 -0.36214 0.0048002 -0.09015 0.13312 -0.058121 -0.22289 -0.15574 0.38184 0.042643 0.17024 -0.13171 -0.38283 -0.25173 0.39691 -0.12568 -0.15275 -0.18735 -0.096414 0.071531 0.10868 0.14456 0.30461 -0.02385 -0.11643 0.15679 0.12935 -0.065627 0.061051 -0.063219 0.16312 -0.26266 0.45858 0.089579 0.41575 0.12048 0.30041
dog -0.33575 0.38897 -0.41929 -0.33219 0.5317 -0.25839 -2.3869 -0.43443 -0.3976 -0.99356 0.47093 -0.16265 -0.13474 -1.306 0.34694 0.1215 -0.15811 -0.011231 -0.4656 -0.18031 0.026682 -0.028445 -0.44228 0.20955 0.044307 0.27514 -0.2314 -0.10864 -0.0087113 0.20522 0.36109 -0.35431 0.25217 0.26608 0.11942 -0.21606 0.073164 0.25023 0.24612 0.20797 -0.18702 -0.038054 0.23604 0.42484 0.10187 0.058443 -0.60782 -0.52279 -0.026276 -0.14402 0.22169 -0.1585 -0.81178 0.082893 -0.022136 -0.12966 0.17201 0.62484 -0.023122 -0.15704 -0.41946 -0.49499 0.056224 -0.081352 0.35428 0.15145 -0.26535 0.10071 -1.0047 0.34271 -0.003079 0.35994 0.4007 0.1518 0.11983 -0.30275 0.13739 -0.36725 0.3665 0.31037 0.513 0.20102 -0.34841 0.28565 -0.48071 0.21667 -0.37125 0.60281 0.099829 -0.47562 -0.094234 -0.19625 -0.12658 0.025421 -0.10805 -0.95298 -2.1365 -0.25989 0.2901 -0.14846 -0.06318 -0.16572 0.0073842 -0.30222 -0.28538 0.47556 0.041736 -0.15516 0.39398 -0.60727 0.7889 -0.092844 0.32725 -0.19599 -0.21146 0.023927 -0.17896 -0.065021 0.52246 -0.38243 -0.4467 0.07913 0.82286 0.55868 0.030237 -0.3001 0.48222 0.54899 -0.3224 -0.67086 -0.61622 0.066708 0.30572 0.01517 -0.52623 0.15352 -0.66473 -0.2077 0.25136 0.36206 -0.22424 0.00085694 0.046224 -0.015066 -0.32618 -0.097696 0.021966 0.27861 0.1584 -0.2021 0.072365 -0.1957 -0.26862 0.13854 0.041905 -0.063822 -0.32484 0.055546 0.28501 0.67519 0.30155 -0.50474 -0.67976 0.51983 0.065695 0.025286 -0.096823 -0.052386 -0.057766 0.02108 -0.24691 -0.80533 -0.18712 0.47986 -0.45478 -0.076232 0.63681 -0.46249 0.23123 0.079812 -0.61783 -0.054644 -0.0015799 0.1465 0.053362 -0.04977 -0.63187 -0.11563 0.38775 0.10124 -0.0032881 0.17987 -0.06248 -0.27772 -0.48288 -0.37275 0.61105 -0.3227 0.69697 0.088196 0.44661 -0.0065324 -0.10571 0.946 -0.19661 -0.39961 0.29346 0.1364 0.42281 -0.45546 0.54213 -0.19004 0.55959 -0.39935 0.12659 -0.29526 -0.11524 0.10132 -0.16572 0.38628 -0.25172 0.30096 -0.22338 -0.093883 -3.1209 0.07981 -1.1115 0.16649 -0.23107 -0.12312 0.20972 -0.007045 -0.73021 -0.47405 -0.28147 0.0010118 0.66102 -0.011403 0.031912 0.50367 0.51864 -0.060027 -0.15285 0.73159 -0.5533 -0.16912 -0.063391 0.13858 0.28878 0.15076 -0.22552 0.28992 0.54796 0.1551 0.51603 -0.19686 -0.64146 0.50649 0.70221 -0.21417 0.35252 -0.29347 -0.19962 -0.055284 -0.10027 0.3333 0.49459 0.17876 -0.041699 0.46649 -0.3172 -0.32616 0.12663 -0.4367 -0.54299 -0.10077 -0.26449 0.10524 -0.325 -0.28024 0.49458 -0.0028948 -0.86985 -0.089116 -0.23145 -0.40411 -0.02368 0.24752 0.32651 -0.053385 -0.11501 -0.55804 0.48427 0.25167 -0.068426 0.34227 0.2684 -0.14929 -0.23516 0.039194
horse -0.60582 -0.12007 -0.28296 -0.51958 -0.24356 0.3063 -1.9696 -0.68264 -0.12242 -0.29489 -0.032549 -0.38074 0.43738 -0.5334 0.16074 0.08246 -0.12719 -0.30474 -0.57233 -0.35819 0.72496 -0.19379 0.0422 -0.40626 0.1754 0.11711 -0.28156 -0.11023 -0.46447 0.47448 -0.027404 0.48941 0.15473 0.08769 -0.1673 -0.56434 -0.18554 -0.060829 -0.038777 -0.30449 -0.1794 -0.020563 0.24605 -0.021376 -0.48861 -0.18523 0.16956 -0.19373 0.11623 0.38929 0.12431 -0.8369 -0.6159 -0.049763 -0.15564 0.029375 -0.015448 0.21791 0.11928 -0.051055 0.10781 0.11385 -0.27537 0.33474 -0.20527 0.49944 0.53253 0.31509 -0.34689 -0.29627 -0.14298 -0.047949 -0.12667 0.43783 -0.05298 -0.75654 0.25377 -0.42385 -0.27825 0.08327 -0.080548 0.50632 -0.11371 0.35315 -0.26472 0.06332 -0.28784 -0.12966 0.16418 -0.50023 -0.093703 -0.49284 0.080221 -0.41754 -0.20329 -0.75108 -1.9928 -0.0055753 0.045426 -0.43051 -0.20269 0.75808 -0.70624 -0.17947 -0.13024 -0.23193 -0.33934 -0.059085 0.53365 0.036249 0.069041 -0.20779 0.86832 0.049363 -0.026017 0.030885 0.23335 0.65915 -0.089629 -0.11834 -0.25213 0.28176 0.99858 -0.20432 -0.096506 -0.24772 0.37243 0.45879 -0.56848 -0.26888 -0.38369 0.12131 0.84222 0.52665 0.33463 0.012269 -0.69622 -0.39984 -0.093092 0.1382 -0.086295 -0.18998 -0.12543 0.29921 -0.13445 0.27361 -0.11097 0.013626 -0.18782 0.31602 -0.25643 0.2658 -0.075289 -0.55831 -0.26064 0.25325 -0.11127 0.15291 -0.10198 0.28449 0.46364 -0.8029 0.16592 0.34479 0.046023 -0.5528 -0.050826 -0.40461 0.36742 0.37282 -0.43511 -0.48531 -0.046655 -0.085275 -0.29315 -0.045209 0.12298 0.11789 -0.37253 0.27457 -0.25351 -0.50358 0.10809 0.0065705 -0.34277 -0.29065 0.35284 -0.39232 0.28779 -0.12789 0.16097 -0.14101 -0.168 0.41677 -0.26086 0.54561 0.20098 -0.39895 0.39893 0.13517 0.40113 0.25786 0.27563 0.58286 -0.24519 -0.065436 -0.27743 0.14057 0.11777 -0.29205 0.25819 -0.13206 0.33469 0.19155 0.46624 0.32072 0.22257 -0.014238 -0.24629 0.35383 -0.19073 -0.1321 -0.29821 -0.52933 -3.1363 -0.98368 -0.81551 -0.086941 -0.071479 0.33593 0.0074101 0.13791 -0.29459 -0.59201 -0.22996 -0.29012 0.095961 0.4344 0.14204 0.67287 0.31778 0.012575 -0.039601 0.32417 -0.2721 -0.25182 0.45456 -0.23169 -0.22438 0.24214 0.064174 -0.29121 0.82376 0.33883 0.14302 -0.0010934 -0.46735 0.16541 0.52011 0.18314 0.17165 0.10486 -0.72645 0.010088 0.34107 0.17478 0.69166 0.23262 -0.42693 0.32251 0.096273 0.42561 0.023166 -0.61657 -0.027264 0.22013 0.1028 0.19066 -0.033349 -0.51372 0.25927 -0.16498 -0.35505 0.54096 0.10185 -0.15406 -0.29289 0.14756 0.26334 -0.75934 0.14393 0.041989 0.24085 0.68696 -0.20099 0.18731 0.67598 -0.23098 -0.34616 0.62986
motorbike -0.11072 -0.28776 -0.074752 -0.45461 0.025809 -0.14918 -0.94361 -0.26863 -0.43388 -0.2311 0.06541 -0.065702 -0.037024 -0.070623 0.42009 0.63603 0.0087881 0.034433 -0.23516 -0.57386 0.49939 0.30046 -0.33735 -0.29534 -0.40095 -0.35866 -0.10805 0.51458 -0.056779 0.3499 -0.32925 0.23733 0.45371 -0.20681 -0.42817 0.20233 0.6788 -0.50197 -0.022481 -0.063503 0.161 0.14814 0.11727 -0.24648 0.079541 -0.21026 0.23551 0.038364 -0.033355 -0.093948 -0.0048021 -0.35428 0.044539 -0.17169 -0.61941 0.097268 -0.468 -0.18627 -0.28905 -0.54981 -0.25544 -0.42866 -0.27487 0.15216 -0.16844 0.27816 0.058847 -0.19135 -0.43239 0.62659 0.13906 0.25984 -0.5584 -0.075964 -0.73109 -0.10857 -0.23691 -0.049101 -0.27612 0.21233 0.065985 0.37766 -0.32272 0.16887 0.26504 -0.43005 0.31121 0.32919 0.1511 -0.11849 -0.11179 -0.26408 0.25068 0.16286 -0.15152 -0.99712 -1.1301 0.20001 0.47839 0.1048 0.23545 0.36148 0.003962 -0.40833 -0.036788 -0.26437 0.57369 -0.3811 0.47324 -0.44638 -0.080726 -0.39258 0.020935 -0.42013 0.12205 0.024365 0.37048 0.20022 -0.23538 -0.30783 0.24011 0.50363 0.21752 -0.15831 0.47429 0.17917 0.24462 0.17969 -0.16134 -1.0876 0.19809 -0.029761 0.674 -0.27969 -0.30007 0.12606 0.48725 -0.41414 -0.085618 0.62394 -0.42909 0.26576 0.041172 -0.0077034 -0.53804 0.51209 -0.12444 -0.14669 0.023012 0.080587 -0.20161 -0.49145 0.4837 0.028013 -0.39785 -0.71989 -0.34516 -0.12337 1.118 0.38312 0.17348 -0.67436 0.61557 -0.12 0.17373 0.014231 0.090548 -0.69807 -0.46531 0.32495 0.054785 -0.11247 -0.45992 0.014074 -0.54491 0.22701 0.17398 0.21836 -0.055263 0.044825 0.96643 0.15229 -0.46354 -0.13409 0.20661 -0.054416 0.28823 0.17748 -0.21377 -0.41051 -0.38928 -0.051604 -0.61369 0.29042 -0.00060726 0.28994 0.43175 -0.4085 0.064915 0.26909 0.54777 0.038743 -0.258 -0.22479 -0.41327 -0.0057694 -0.85363 -0.59002 0.49335 -0.28 0.1389 0.28595 0.041928 0.45651 0.92267 0.36034 0.012171 0.14664 0.22306 0.41367 0.10696 0.23369 0.4464 0.25936 -1.0919 -0.1785 0.42372 -0.79012 0.32619 0.045186 -0.15735 1.067 0.10043 -0.30742 -0.12681 -0.097236 0.36409 0.30155 0.49404 0.19391 -0.5131 0.10579 0.14703 0.5994 -0.20241 0.17355 0.49435 -0.12119 -0.45604 0.3316 0.66197 -0.37575 0.5678 -0.025096 -0.45892 -0.3329 0.14384 -0.14893 -0.54752 0.33489 -0.08488 0.36048 -0.48345 -0.89952 0.72487 -0.12367 0.26323 0.55867 0.22092 -0.24251 -0.22877 -0.34067 0.42941 -0.35168 0.021906 0.36547 0.10585 -0.071815 0.48731 0.19697 -0.19683 -0.23529 0.069678 0.19116 0.83334 -0.11901 -0.068852 -0.2707 -0.11882 -0.075944 0.34522 -0.58685 -0.12497 -0.38367 -0.3094 -0.16171 -0.40919 -0.36266 -0.32571 -0.0056254
person 0.096294 0.73925 -0.41032 0.10634 0.034901 0.48495 -3.8813 0.78489 -0.41379 -0.22627 -0.15702 -0.60293 0.019921 -0.36379 0.30121 -0.33961 -0.048653 -0.042444 -0.17392 0.086495 0.17964 -0.21593 -0.083551 0.092735 0.18547 -0.072723 -0.4284 -0.022299 0.11925 0.15795 0.066207 0.28493 0.36579 -0.068961 0.13755 0.18552 -0.40796 -0.067733 -0.053248 0.27476 0.11279 0.17204 -0.18967 -0.36648 -0.0087883 0.21211 0.44159 0.5245 -0.19861 0.18029 -0.46096 -0.2672 -0.47386 0.14132 -0.22544 -0.95755 -0.27778 -0.2947 -0.36824 -0.026248 -0.2399 -0.079766 0.63396 -0.26719 -0.4707 0.43026 0.1969 0.050602 -0.2746 0.10522 0.10081 0.034891 -0.12617 0.03148 0.33374 0.00046882 0.56351 -0.1523 -0.03002 -0.21295 -0.068755 -0.75849 0.17179 -0.14435 0.26588 -0.11875 0.30468 -0.33056 -0.02941 0.63009 -0.16136 -0.13773 0.05493 -0.17125 -0.036061 -0.36183 -2.09 -0.058371 -0.054467 0.89361 -0.19975 0.2706 0.095969 -0.19775 0.026345 0.010434 -0.021922 -0.58262 0.19157 0.026375 0.3962 -0.23936 -0.049538 -0.026534 0.13753 0.74848 -0.07342 -0.017657 0.46518 0.21327 -0.025885 -0.55681 0.62417 -0.16355 0.28393 -0.4438 0.23319 -0.38838 -0.55232 -0.025544 -0.078049 -0.44526 -0.22232 -0.32426 -0.30494 -0.12087 -0.24359 -0.44714 -0.083506 -0.15911 -0.0056188 -0.28302 0.25346 0.021178 -0.12324 -0.12797 -0.23925 0.066536 0.21296 0.25052 -0.052486 -0.35566 0.44787 0.20656 0.19403 0.051562 -0.31754 0.2394 -0.019592 0.058793 0.13812 0.19698 -0.21057 0.35415 -0.1031 0.087208 0.083792 -0.20666 -0.30825 0.03307 -0.31575 -0.74219 0.1175 -0.21394 -0.049203 -0.10999 0.5896 -0.47214 -0.2355 0.11018 0.27553 0.544 -0.54537 0.057178 -0.50408 0.11531 -0.2159 0.2176 -0.14253 0.0103 -0.076377 0.35501 -0.33423 0.33021 0.45077 0.47341 0.50186 -0.29114 0.18693 -0.53763 -0.1818 0.25513 0.13258 -0.25162 0.31747 0.27295 0.33985 0.43785 0.097529 0.17776 0.10444 -0.14189 0.15559 0.4614 -0.33408 0.56395 0.016583 -0.1196 -0.036988 -0.11809 0.15346 0.45076 0.13626 0.1404 -2.265 -0.21662 -0.37396 -0.10086 -0.0088053 -0.53927 0.21474 0.40916 0.023092 -0.37252 -0.17056 -0.13587 0.32346 -0.075093 0.30587 -0.070364 -0.18011 -0.004206 -0.2671 0.22044 -0.64498 0.19218 -0.28805 0.44792 0.073412 -0.19226 0.088122 -0.15264 -0.17808 -0.14266 0.36451 0.077438 -0.34588 0.38817 -0.029416 -0.11228 -0.23455 -0.13306 -0.17117 0.15875 0.0092649 0.45445 -0.024908 -0.48675 0.68456 0.38547 -0.31019 -0.3388 -0.46961 0.22336 -0.62838 -0.23599 -0.36306 -0.29248 0.17744 0.10523 0.37667 -0.19268 0.0083352 0.3444 0.011899 -0.082683 0.1426 0.1 -0.42715 -0.011387 -0.058519 -0.18083 -0.16236 -0.077937 -0.25557 -0.27859 -0.010038 0.17183 -0.1588 -0.3658
pottedplant 0.19521 0.31607 -0.49483 -0.83537 1.1181 -0.34075 -0.49144 -0.58838 0.59797 -0.33093 -0.086861 -0.20429 0.41108 -0.038022 0.29547 -0.45477 0.27879 -0.10701 0.2953 -0.49899 -0.023905 -0.17631 -0.16165 -0.015291 -0.25916 -0.22504 0.2246 0.7035 0.32179 0.029562 0.11373 -0.35919 -0.15285 0.30369 0.26056 0.84081 -0.33999 0.077144 -0.11184 0.60023 0.17982 -0.62816 0.45832 0.35016 -0.27405 -0.40641 -0.071136 -0.86669 0.051798 -0.51538 0.35271 -0.29739 0.21102 -0.39979 -0.41375 -0.85666 -0.13556 0.13265 0.20865 -0.099097 -0.5518 -0.52829 -0.29824 0.71693 -0.055315 0.15517 0.41921 -0.055501 -0.17402 0.30423 -0.44175 0.33324 0.17867 -0.17215 -0.56785 -0.22789 -0.19857 0.99996 0.76288 -0.43629 0.64789 0.24037 0.069292 0.91435 -0.59656 0.16389 0.49788 -0.47218 -0.0046681 0.34948 -0.34871 -0.23929 -0.054087 -0.41722 -0.26499 -0.909 -1.0469 -0.33657 -0.351 -0.72259 -0.10741 -0.10886 -0.11779 -1.0849 -0.36651 -0.55873 -0.16979 0.35797 -0.48601 -0.17638 0.67575 -0.39289 0.17196 0.19901 -0.72099 -0.19922 0.46832 0.18293 -0.8846 -0.14177 -0.68425 -0.43505 -0.12999 -0.13615 0.26571 -0.16402 0.21309 -0.089852 -0.37532 -0.60658 0.14707 0.14857 -0.86873 -0.035576 -0.76706 -0.14934 0.23652 0.21274 -0.048455 0.78298 0.25967 0.03537 0.76066 0.20108 0.027655 -0.30239 -0.057953 0.078909 0.87292 -0.7514 0.071013 0.22499 -0.25075 -0.6776 -0.077831 -0.1332 -0.57541 0.30301 -0.59433 0.14673 -0.26773 -0.26121 -0.058908 -0.29783 -0.18837 -0.4896 -0.49215 0.23461 0.085086 0.46097 0.2608 -0.20831 0.88402 -0.21029 0.41017 0.18447 -0.20209 0.1401 -0.13117 0.21029 0.078608 0.39441 -0.3577 0.57923 -0.30211 0.15541 -0.074391 0.86039 0.77504 -0.48168 -0.17704 -0.094586 0.18752 -0.08623 0.38852 0.45394 -0.30797 0.22102 0.24453 0.040522 -0.64017 0.0044968 0.29118 0.064208 -0.4036 -0.030448 -0.39227 0.50288 -0.10544 0.2729 -0.95942 0.25788 0.51827 -0.067645 -0.63458 -0.13388 0.48342 0.20693 0.26169 0.0064223 -0.59022 -0.040068 -0.76457 -0.52929 -0.72122 0.11934 -0.71161 -0.28665 0.53458 0.35624 -0.27897 -0.14564 -0.053963 -0.44565 -0.01969 0.3658 0.38365 0.19139 -0.59072 0.30778 0.14582 -0.00112 0.18587 -0.69092 0.14874 0.18248 -0.57871 0.46614 -0.13624 0.30365 -0.37277 -0.027084 0.46973 -0.072286 0.62551 -0.64325 -0.30832 0.076729 0.73229 0.33772 0.60532 -0.158 0.086822 0.43572 0.24788 -0.3779 -0.73311 1.2732 -0.19262 -0.061475 0.51078 0.15539 0.20369 0.4279 0.16717 -0.34188 -0.27568 0.050209 -0.17764 0.60673 0.037872 -0.3055 -0.26262 -0.093476 -1.1945 0.76255 0.037016 -0.433 0.67498 -0.50233 -0.086886 -0.71727 0.77794 0.0079268 0.27162 -0.046873 0.67958 0.084777 0.20639 0.2434
sheep -0.96069 -0.010404 -0.51649 -0.0518 0.073787 0.25763 -1.844 -0.39215 0.31598 -0.75394 0.32367 0.22697 0.53479 -0.47876 -0.39195 -0.30098 -0.18564 -0.46811 -0.14295 -0.28504 0.052322 -0.57362 -0.12936 0.48257 -0.24372 0.051877 -0.35794 0.43984 -0.39802 0.056371 -0.081558 -0.14797 -0.10158 0.40451 -0.078093 -0.096308 -0.45587 0.67623 -0.2425 -0.26404 0.18851 -0.1218 0.19673 0.40257 -0.52669 0.83951 0.25554 -0.44298 0.41836 0.023434 0.33537 -0.37704 -0.31177 -0.040759 0.023349 0.4614 0.58241 0.68146 0.14259 -0.62394 -0.43716 -0.38672 -0.12449 0.26387 -0.657 0.29872 0.31174 -0.20168 0.16887 0.15064 -0.10629 -0.38145 0.27238 0.63018 0.11167 -0.89394 -0.12369 -0.098507 0.38574 0.36334 -0.2637 0.32406 0.25327 -0.63183 0.11435 0.008393 -0.2327 -0.11922 0.59717 -0.71823 0.57318 0.28986 -0.32635 -0.25018 -0.20987 -0.39068 -1.1621 -0.66869 0.21105 -0.25463 0.38683 0.93313 -0.35168 0.1464 -0.36572 -0.30093 0.17678 -0.29601 0.086328 -0.12814 -0.34212 0.30905 0.6484 -0.32111 0.54127 0.13715 -0.056354 -0.22878 -0.13199 0.32269 -0.48167 0.40657 0.45561 -0.0041307 -0.59024 -0.040286 0.016306 0.27123 -0.53894 -0.60133 0.092948 0.31879 -0.018069 0.22026 0.34092 -0.11646 0.17063 -0.75249 -0.15848 -0.034233 -0.30609 -0.12286 0.087222 0.048989 -0.34149 -0.70354 0.51852 0.064752 0.036605 -0.32308 0.38945 0.046152 -0.47525 0.29537 -0.63839 0.072654 -0.1637 0.54046 0.61134 0.15652 -0.17358 -0.15149 -0.22514 0.16349 -0.099206 0.024323 0.087766 -0.59756 0.46435 0.72726 -0.53738 -0.066816 0.23641 0.14804 -0.39506 0.47335 0.12523 -0.20864 -0.56884 0.354 -0.32451 -0.28301 0.1121 0.54287 -0.30209 0.21111 -0.17477 -0.18613 0.67021 0.24809 0.011746 0.13725 0.1866 0.48107 -0.0035841 0.10292 0.71498 -0.24069 0.17008 0.20126 0.16449 0.095737 0.21406 0.73233 0.25321 -0.23378 -0.22836 0.21461 0.15579 -0.077494 -0.2977 -0.20673 0.13402 0.090149 0.24153 -0.053066 0.034461 0.62849 0.24857 0.40575 -0.63867 0.33396 0.34501 -0.22545 -1.9144 -0.54605 -0.70571 -0.091913 -0.20001 -0.24854 0.32225 0.23549 0.36743 0.0072213 0.45483 0.096171 -0.2667 -0.044926 -0.053346 0.086966 0.25776 -0.016069 -0.020978 -0.26942 -0.28814 -0.06213 -0.18317 0.013041 0.47226 0.53062 0.53368 -0.79901 0.74963 0.34917 0.33188 0.31437 -0.82598 0.47696 0.39594 0.17297 -0.10514 -0.11494 0.049696 -0.60931 0.67795 -0.38353 0.17786 0.0025492 -0.29424 1.0034 -0.16771 -0.059345 0.44566 -0.58836 -0.28087 0.44992 0.23298 -0.13703 -0.088559 -0.6643 0.57009 0.18277 -0.96554 0.26998 0.14815 -0.19475 0.40666 0.017945 -0.10596 -0.69432 -0.28862 -0.10406 -0.34814 0.11076 0.013093 0.26591 0.069318 -0.3995 -0.72497 0.79698
sofa -0.69801 -0.17865 -0.09597 0.29827 0.50052 0.36222 -1.0877 -0.37399 -0.31287 0.019386 -0.28072 -0.091166 0.32118 0.12801 -0.77863 0.27754 -0.25273 -0.28484 -0.079042 0.16495 -0.27513 -0.33441 -0.54446 0.6921 -0.42935 0.034888 0.30273 0.44148 0.14268 -0.8453 0.42257 0.3999 -0.22175 -0.10502 0.066041 -0.15479 0.16832 0.65347 -0.11916 0.31625 -0.13844 0.19379 -0.13354 -0.26844 0.36731 -0.36076 -0.14832 0.015532 0.17946 0.031063 -0.05604 -0.41356 -0.46719 -0.54402 0.38353 0.53077 -0.42358 -0.6284 0.2727 -0.61569 -0.11792 -0.076168 0.24581 -0.029208 0.59555 0.02756 0.25339 0.9745 -0.012324 -0.34154 0.64029 0.62061 -0.27479 0.327 0.29165 -0.6607 0.020507 -0.081871 0.90224 0.72725 0.51522 1.1841 -0.080378 -0.18607 0.17073 0.0087264 -0.15875 0.3594 -0.30445 0.10571 0.037631 -0.19489 0.31163 0.3146 -0.27464 -0.3087 -1.0833 -0.2867 -0.17797 0.32709 -0.18973 0.21955 0.45557 -0.13136 -0.69221 -0.29048 -1.7237 0.07101 0.2308 -0.47121 0.43534 -0.50328 0.29599 -0.37019 -0.10062 0.16811 0.18147 -0.21069 0.71876 -0.39218 0.04118 -0.17162 0.26582 0.17147 0.53943 0.14513 0.44324 -0.27213 0.27963 0.12755 -0.052467 -0.11529 -0.54423 -0.53235 -0.48674 -0.078883 -0.27026 -0.13376 0.25732 0.21701 0.074197 -0.29007 0.32415 0.43651 0.070544 1.0988 -0.059877 0.16932 0.65668 0.16635 -0.51764 0.08151 0.026572 0.40877 -0.22276 -0.4591 -0.18016 0.28575 0.059889 -0.052255 -0.16267 -0.07826 0.23177 -0.0054705 0.2121 0.047957 0.096081 -0.44878 0.11349 0.11294 0.1698 -0.076031 -0.50116 -0.18067 0.049663 -0.73888 0.62216 0.32126 -0.018437 -0.18835 0.36948 -0.24856 -0.1707 0.63865 0.33351 0.33361 -0.28687 -0.4933 -0.56911 0.1599 -0.33747 -0.58835 -0.54612 -0.030487 0.61219 -0.065911 -0.051412 0.00052771 0.67408 -0.29021 0.4892 -0.20609 0.7567 -0.45474 1.1452 -0.17943 -0.12359 -0.10469 0.37666 0.39986 -0.056458 0.067005 -0.83509 -0.35122 -0.10731 -0.65074 -0.60754 0.41805 0.30013 0.040171 0.51172 -0.76496 -0.15638 -0.18264 -2.2968 -0.53556 -0.098275 -0.25065 0.25249 -0.62831 -0.046578 -0.46175 0.54658 0.29856 -0.34384 -0.19395 0.40079 0.18882 0.091834 -0.13432 0.10984 -0.23012 0.44656 0.2248 0.4834 -0.18344 0.37143 0.29875 0.26805 0.3662 -0.012373 0.0057526 0.77083 0.49344 -0.011707 0.26387 -0.58001 0.34426 -0.078796 0.026274 0.27324 -0.32142 0.19972 0.45807 0.26457 -0.34149 -0.26603 -0.056249 -0.14801 -0.36874 0.030905 -0.011103 -0.68845 -0.28473 -0.082509 0.26805 0.65865 -0.1522 0.22542 0.026399 0.70222 0.21688 0.032824 -0.51147 -0.25367 0.36582 -0.12958 0.033436 0.47496 -0.09022 -0.051768 0.12959 -0.17236 -0.37956 0.31429 -0.77524 -0.31797 0.065723 0.44975 -0.86957
train 0.35056 0.11132 -0.58362 0.14677 -0.36611 0.14146 -2.2116 -0.30641 -0.30608 0.25961 -0.25379 0.053819 -0.15904 0.089095 -0.04516 0.20252 -0.75263 -0.13801 -0.12678 0.16304 -0.0020117 0.20664 0.041409 0.18007 0.34412 -0.13071 0.016995 0.12321 0.05925 0.58464 -0.29303 -0.19646 0.68853 -0.13521 -0.4081 -0.47886 -0.20701 -0.15359 0.036205 0.12391 0.078705 0.43181 0.21383 0.23615 0.087169 -0.044742 -0.28876 0.12915 0.32435 -0.42891 0.10597 -0.033638 0.32355 -1.0114 0.25959 -0.29183 -0.42534 -0.36152 -0.25192 -0.048906 -0.88776 -0.21293 -0.39323 0.36432 -0.02904 0.15557 0.16443 0.088004 0.40312 -0.51221 0.033116 -0.029194 -0.60071 0.01102 0.012071 -0.2 -0.12641 -0.0071003 -0.35083 -0.10825 0.63478 0.60083 0.089104 -0.29194 -0.22679 0.37229 -0.0056924 0.31607 0.36034 -0.11541 0.45536 0.13627 -0.22378 0.076909 -0.19973 -0.041422 -2.1647 0.7604 0.34583 0.34936 -0.18203 0.042599 -0.042841 -0.27567 -0.17337 -0.39617 0.35472 -0.0080366 -0.29194 -0.11902 0.48673 -0.33049 0.20542 0.25439 0.2023 0.27393 -0.37562 -0.24566 0.053725 -0.35601 0.084721 0.55723 -0.20771 0.033207 0.00054004 0.0091965 0.35801 0.49945 0.056749 -0.65944 0.13841 0.042727 0.16986 0.72002 -0.070166 -0.073366 0.19698 -0.36664 0.21166 0.51268 -0.089841 -0.066199 0.10002 0.056659 -0.28138 -0.078328 -0.18419 -0.18845 -0.42375 0.8666 -0.12993 -0.3242 0.78661 -0.8568 -0.25949 0.027909 -0.022879 0.15617 0.12188 -0.12302 -0.168 0.021908 0.24937 0.079322 -0.45196 -0.096906 -0.66593 -0.15497 0.08394 -0.24572 0.38263 -0.3153 -0.15595 0.40005 0.23558 -0.14194 -0.47304 0.29103 0.054258 -0.74006 0.49753 0.15927 0.48571 0.29224 -0.16517 -0.096554 -0.077952 0.18345 0.25462 0.19504 0.10672 0.081173 0.16288 -0.23107 -0.18038 -0.23841 0.75772 0.23307 0.22402 0.11827 -0.11872 -0.36475 -0.4465 0.83344 -0.2898 -0.13274 -0.024416 0.073494 0.245 -0.51202 0.20559 -0.026456 0.12546 0.14026 0.12162 0.20371 -0.22813 -0.22216 0.36798 0.31969 -0.11326 -0.16117 0.031873 -0.046147 -2.7584 -0.39025 -0.16273 0.16443 -0.0048757 -0.27424 0.17722 0.056189 -0.30853 -0.31807 0.21133 -0.4581 1.0262 0.20106 -0.30625 0.28499 -0.21837 0.02615 -0.032832 0.20416 -0.71901 0.70467 0.16623 -0.35453 -0.19448 -0.44937 -0.48169 -0.10761 0.57987 -0.35236 -0.057352 -0.30906 -0.30747 0.20716 0.66261 -0.48078 0.24809 0.44535 -0.46032 -0.32286 0.59956 0.20425 0.64158 -0.69917 -0.19924 -0.075466 -0.24708 -0.47174 -0.88043 -1.2554 0.46074 0.07634 0.44452 -0.19127 -0.40803 -0.13727 0.59452 -0.25285 -0.22033 0.026376 -0.33175 0.45601 -0.20537 -0.39617 -0.23229 0.24841 0.21466 0.082946 -0.27792 0.29103 -0.29321 0.25617 0.75319 0.58439 -0.49578 -0.63102
tvmonitor 0.17492 -0.17158 -0.054676 0.51633 -0.082601 0.58253 0.20458 0.054681 0.12058 -0.17479 -0.25542 -0.18021 -0.22191 0.54736 -0.030861 -0.083695 -0.63729 0.13475 -0.62168 -0.62059 -0.10211 -0.57573 -0.14324 0.48009 -0.048622 0.20477 0.41339 -0.44989 0.1951 -0.36282 -0.28733 0.32022 -0.046072 0.0091947 0.72845 0.50449 0.018649 -0.4711 -0.17203 0.72461 0.034165 -0.28156 -0.31763 -0.56659 -0.049264 0.22811 -0.31963 -0.54131 0.02555 -0.075489 -0.58258 0.86413 -0.53225 -0.41735 -0.0088852 0.2798 0.010093 0.3284 0.3665 0.044292 -0.49149 0.31988 0.69504 0.054894 -0.073766 0.25522 0.018883 -0.26357 -0.07979 -0.058761 0.20787 0.32069 -0.082921 -0.13915 0.34055 0.25842 0.18074 -0.11744 0.20413 -0.71058 0.28063 0.21402 0.021457 0.21654 -0.045197 -0.25312 -0.047154 0.59999 0.34731 0.064543 0.27625 -0.1246 -0.11593 -0.26996 0.28894 0.16179 -0.050988 -0.32868 -0.018017 -0.56466 0.12793 -0.40057 -0.49076 0.52424 0.25656 -0.01722 0.37151 -0.010368 0.093171 -0.36623 0.12859 -0.041244 -0.12188 0.020688 0.73351 0.14332 0.28193 0.12328 0.27079 -0.046093 -0.1856 -0.46265 0.40268 -0.032276 0.30357 0.13057 -0.084567 0.16756 0.069925 -0.49472 -0.37023 0.46514 0.060919 -0.30795 -0.89455 -0.033138 0.014398 0.081525 -0.11143 0.11674 0.27932 0.061785 0.71001 -0.48448 -0.24104 0.14524 -0.17915 0.14099 0.044744 0.19788 -0.54902 0.31796 -0.10266 -0.60199 0.14221 0.291 0.50783 0.44194 0.16195 -0.73001 0.71431 0.094268 -0.40065 -0.25273 -0.57056 -0.57692 -0.24024 0.12763 0.67385 -0.12107 0.1268 -0.92742 -0.078764 0.18643 0.033141 0.68925 0.39435 0.11795 0.19737 -0.05546 -0.66954 0.42681 0.27993 -0.77976 0.31001 -0.28561 1.0972 -0.21815 -0.23534 0.18608 0.090809 0.87434 0.11174 0.036692 0.082046 -0.047634 -0.3113 -0.54094 0.27929 0.26422 -0.011685 0.41265 0.51507 -0.12379 0.47819 -0.074569 -0.36117 -0.070643 -0.11991 -0.14342 -0.4065 0.25022 -0.24555 0.055729 0.50435 0.11445 -0.12718 0.2527 0.12321 -0.2054 -0.24097 0.5572 -0.83632 0.088484 0.54492 -0.18904 -0.059402 -0.029457 0.031768 0.3921 0.10768 0.28595 0.13551 -0.29778 -0.0028999 0.51841 -0.34671 -0.1614 -0.3815 0.11214 -0.049746 0.45436 0.28366 0.0063227 0.18445 0.55876 0.46628 -0.1881 0.50584 -0.43522 -0.68968 -0.15412 0.16278 -0.032955 -0.89468 -0.18154 -0.34663 0.45447 0.24966 -0.034514 -0.097647 0.20419 -0.28799 0.40924 0.017632 -0.019756 -0.45792 0.42803 -0.31821 -0.12475 -0.12354 0.38546 -0.35446 -0.24525 0.25125 -0.18853 0.22549 -0.2304 0.39314 -0.057655 -0.18173 -0.23107 0.19706 -0.56266 0.24601 0.12721 0.98929 -0.24495 0.16813 0.11732 -0.13411 -0.075256 -0.007296 0.26582 -0.053813 0.34561 -0.12301 0.28025 0.081514 0.1139
